{"levels":[{"inputs":[0.812653002247109,0.7996984726573022,0.7427453278514596,0.6279992463887655,0.5119426188752975],"outputs":[0,0,0,0,0,0],"biases":[0.11707326292648453,-0.4107898543361816,-0.06017134546926167,0.8189906583875898,-0.6928862407151753,0.5017712003681868],"weights":[[0.10693837028296585,-0.0622576402258843,-0.06497079217065657,0.37959957247602893,-0.5968625392812843,0.2759092468021428],[-0.3469363534733085,0.07760179410724227,-0.0861916656642634,0.6431554274549551,-0.45581454181097514,0.05486232515141093],[-0.0621916566737388,-0.4980738254460694,-0.16910869511980336,0.7173205937582083,-0.16487753232416702,-0.5799891055278847],[0.23135719844207728,-0.6800367091437534,0.054758110945871546,-0.6012397501485119,-0.1887963954576562,0.34613613688699285],[0.2578007200600393,-0.3932048004910052,-0.3891538258485662,-0.33348085884752376,-0.3708548863433583,0.07654783640925843]]},{"inputs":[0,0,0,0,0,0],"outputs":[0,1,0,0],"biases":[0.3785279419877543,-0.2909268398502509,0.6689847205675102,0.6354480565781792],"weights":[[0.4067598760597428,0.15671327652511516,-0.29130151420232125,0.7154746891750237],[-0.4356103814414446,-0.7403649496953277,0.772390945882429,-0.4882396714656585],[-0.06551704830577326,-0.17711582803998377,0.3194257589442268,-0.43037069880453244],[-0.3576339926010036,-0.8591290052042464,-0.5432592062246562,-0.1195166369383493],[0.8500783340912771,0.28801954986083517,-0.051246748083106294,-0.36478844670835453],[-0.0057405853892005775,0.3158652255812952,-0.058145372326535986,0.26263346837560514]]}]}