{"levels":[{"inputs":[0.15147186257614298,0,0.2126666666666699,0,0.15147186257614298],"outputs":[1,0,1,1,0,0],"biases":[-0.35595267475262793,0.6090624053958698,-0.20898351011533745,-0.3173963505058956,0.5497030963165425,0.13035840285350786],"weights":[[-0.1594136599755296,-0.4889195261052973,-0.1517178085868051,-0.1290342959315814,-0.46639062772893797,0.25356741235932134],[-0.29349865844555656,-0.24797912858854015,0.44719579019385186,-0.7182711939997611,0.23613859317748687,0.45714932465374175],[-0.4576675480522391,-0.2812946875037441,0.1173012625464011,-0.36179948661330025,-0.07564132661442151,0.3508677751785426],[-0.6704314615624941,0.08536235297543779,0.5763919713902385,-0.22912992747764926,-0.4217217259227719,-0.3403723868951021],[-0.4790814624233494,-0.07325985745156159,0.06546522705842209,0.18695928774762563,0.5794905841583953,0.07448382992611739]]},{"inputs":[1,0,1,1,0,0],"outputs":[1,0,0,0],"biases":[-0.31476060249511284,-0.5561617735542003,0.629613267704652,0.673868650679998],"weights":[[-0.2814605354300229,-0.5377686927009935,-0.262323087746261,-0.3181698206282637],[0.5424143575056798,-0.24054550622386947,0.31991710542447943,0.1273552789328766],[0.21383840122557846,-0.4636264753810775,0.26404228704909216,0.6614222691525159],[0.6051710023885117,0.347551575322338,0.2793509097904434,-0.34416085328677226],[-0.19970840231674758,-0.6036162383536776,-0.6698568702056146,0.06150486314955724],[0.32989877119120137,-0.1496967107294244,0.5604164611474611,-0.09715717626229459]]}]}